digraph Tree {
node [shape=box, style="filled, rounded", color="black", fontname=helvetica] ;
edge [fontname=helvetica] ;
0 [label="x.age80 <= 55.5\ngini = 0.402\nsamples = 279035\nvalue = [77759, 201276]\nclass = not-tested", fillcolor="#399de59c"] ;
1 [label="x.imprace_2 <= 0.5\ngini = 0.4875\nsamples = 126187\nvalue = [53109, 73078]\nclass = not-tested", fillcolor="#399de546"] ;
0 -> 1 [labeldistance=2.5, labelangle=45, headlabel="True"] ;
2 [label="x.rfsmok3_2 <= 0.5\ngini = 0.4783\nsamples = 115489\nvalue = [45709, 69780]\nclass = not-tested", fillcolor="#399de558"] ;
1 -> 2 ;
3 [label="x.age80 <= 22.5\ngini = 0.4659\nsamples = 93189\nvalue = [34426, 58763]\nclass = not-tested", fillcolor="#399de56a"] ;
2 -> 3 ;
4 [label="x.age80 <= 19.5\ngini = 0.2979\nsamples = 7753\nvalue = [1412, 6341]\nclass = not-tested", fillcolor="#399de5c6"] ;
3 -> 4 ;
5 [label="gini = 0.2103\nsamples = 3224\nvalue = [385, 2839]\nclass = not-tested", fillcolor="#399de5dc"] ;
4 -> 5 ;
6 [label="gini = 0.3507\nsamples = 4529\nvalue = [1027, 3502]\nclass = not-tested", fillcolor="#399de5b4"] ;
4 -> 6 ;
7 [label="x.age80 <= 48.5\ngini = 0.4742\nsamples = 85436\nvalue = [33014, 52422]\nclass = not-tested", fillcolor="#399de55e"] ;
3 -> 7 ;
8 [label="gini = 0.4896\nsamples = 58372\nvalue = [24979, 33393]\nclass = not-tested", fillcolor="#399de540"] ;
7 -> 8 ;
9 [label="gini = 0.4175\nsamples = 27064\nvalue = [8035, 19029]\nclass = not-tested", fillcolor="#399de593"] ;
7 -> 9 ;
10 [label="x.age80 <= 48.5\ngini = 0.4999\nsamples = 22300\nvalue = [11283, 11017]\nclass = tested", fillcolor="#e5813906"] ;
2 -> 10 ;
11 [label="x.age80 <= 22.5\ngini = 0.4947\nsamples = 15733\nvalue = [8678, 7055]\nclass = tested", fillcolor="#e5813930"] ;
10 -> 11 ;
12 [label="gini = 0.4738\nsamples = 1416\nvalue = [546, 870]\nclass = not-tested", fillcolor="#399de55f"] ;
11 -> 12 ;
13 [label="gini = 0.4908\nsamples = 14317\nvalue = [8132, 6185]\nclass = tested", fillcolor="#e581393d"] ;
11 -> 13 ;
14 [label="x.impmrtl_1 <= 0.5\ngini = 0.4787\nsamples = 6567\nvalue = [2605, 3962]\nclass = not-tested", fillcolor="#399de557"] ;
10 -> 14 ;
15 [label="gini = 0.4986\nsamples = 3549\nvalue = [1680, 1869]\nclass = not-tested", fillcolor="#399de51a"] ;
14 -> 15 ;
16 [label="gini = 0.4251\nsamples = 3018\nvalue = [925, 2093]\nclass = not-tested", fillcolor="#399de58e"] ;
14 -> 16 ;
17 [label="x.age80 <= 20.5\ngini = 0.4265\nsamples = 10698\nvalue = [7400, 3298]\nclass = tested", fillcolor="#e581398d"] ;
1 -> 17 ;
18 [label="x.age80 <= 18.5\ngini = 0.4577\nsamples = 516\nvalue = [183, 333]\nclass = not-tested", fillcolor="#399de573"] ;
17 -> 18 ;
19 [label="htin4 <= 64.5\ngini = 0.3555\nsamples = 186\nvalue = [43, 143]\nclass = not-tested", fillcolor="#399de5b2"] ;
18 -> 19 ;
20 [label="gini = 0.4403\nsamples = 55\nvalue = [18, 37]\nclass = not-tested", fillcolor="#399de583"] ;
19 -> 20 ;
21 [label="gini = 0.3088\nsamples = 131\nvalue = [25, 106]\nclass = not-tested", fillcolor="#399de5c3"] ;
19 -> 21 ;
22 [label="htin4 <= 66.5\ngini = 0.4885\nsamples = 330\nvalue = [140, 190]\nclass = not-tested", fillcolor="#399de543"] ;
18 -> 22 ;
23 [label="gini = 0.4986\nsamples = 169\nvalue = [89, 80]\nclass = tested", fillcolor="#e581391a"] ;
22 -> 23 ;
24 [label="gini = 0.4329\nsamples = 161\nvalue = [51, 110]\nclass = not-tested", fillcolor="#399de589"] ;
22 -> 24 ;
25 [label="x.age80 <= 46.5\ngini = 0.4128\nsamples = 10182\nvalue = [7217, 2965]\nclass = tested", fillcolor="#e5813996"] ;
17 -> 25 ;
26 [label="x.age80 <= 23.5\ngini = 0.3581\nsamples = 6464\nvalue = [4954, 1510]\nclass = tested", fillcolor="#e58139b1"] ;
25 -> 26 ;
27 [label="gini = 0.4639\nsamples = 588\nvalue = [373, 215]\nclass = tested", fillcolor="#e581396c"] ;
26 -> 27 ;
28 [label="gini = 0.3436\nsamples = 5876\nvalue = [4581, 1295]\nclass = tested", fillcolor="#e58139b7"] ;
26 -> 28 ;
29 [label="x.rfsmok3_2 <= 0.5\ngini = 0.4764\nsamples = 3718\nvalue = [2263, 1455]\nclass = tested", fillcolor="#e581395b"] ;
25 -> 29 ;
30 [label="gini = 0.4857\nsamples = 2884\nvalue = [1686, 1198]\nclass = tested", fillcolor="#e581394a"] ;
29 -> 30 ;
31 [label="gini = 0.4264\nsamples = 834\nvalue = [577, 257]\nclass = tested", fillcolor="#e581398d"] ;
29 -> 31 ;
32 [label="x.age80 <= 69.5\ngini = 0.2705\nsamples = 152848\nvalue = [24650, 128198]\nclass = not-tested", fillcolor="#399de5ce"] ;
0 -> 32 [labeldistance=2.5, labelangle=-45, headlabel="False"] ;
33 [label="x.impmrtl_1 <= 0.5\ngini = 0.3382\nsamples = 88410\nvalue = [19062, 69348]\nclass = not-tested", fillcolor="#399de5b9"] ;
32 -> 33 ;
34 [label="x.imprace_2 <= 0.5\ngini = 0.4125\nsamples = 35041\nvalue = [10192, 24849]\nclass = not-tested", fillcolor="#399de596"] ;
33 -> 34 ;
35 [label="x.impmrtl_3 <= 0.5\ngini = 0.3913\nsamples = 30871\nvalue = [8237, 22634]\nclass = not-tested", fillcolor="#399de5a2"] ;
34 -> 35 ;
36 [label="gini = 0.4175\nsamples = 22815\nvalue = [6774, 16041]\nclass = not-tested", fillcolor="#399de593"] ;
35 -> 36 ;
37 [label="gini = 0.2972\nsamples = 8056\nvalue = [1463, 6593]\nclass = not-tested", fillcolor="#399de5c6"] ;
35 -> 37 ;
38 [label="x.rfmam2y_123456789 <= 0.5\ngini = 0.4981\nsamples = 4170\nvalue = [1955, 2215]\nclass = not-tested", fillcolor="#399de51e"] ;
34 -> 38 ;
39 [label="gini = 0.489\nsamples = 2963\nvalue = [1262, 1701]\nclass = not-tested", fillcolor="#399de542"] ;
38 -> 39 ;
40 [label="gini = 0.489\nsamples = 1207\nvalue = [693, 514]\nclass = tested", fillcolor="#e5813942"] ;
38 -> 40 ;
41 [label="x.imprace_2 <= 0.5\ngini = 0.2772\nsamples = 53369\nvalue = [8870, 44499]\nclass = not-tested", fillcolor="#399de5cc"] ;
33 -> 41 ;
42 [label="x.impeduc_4 <= 0.5\ngini = 0.2661\nsamples = 51005\nvalue = [8059, 42946]\nclass = not-tested", fillcolor="#399de5cf"] ;
41 -> 42 ;
43 [label="gini = 0.2878\nsamples = 37991\nvalue = [6621, 31370]\nclass = not-tested", fillcolor="#399de5c9"] ;
42 -> 43 ;
44 [label="gini = 0.1966\nsamples = 13014\nvalue = [1438, 11576]\nclass = not-tested", fillcolor="#399de5df"] ;
42 -> 44 ;
45 [label="x.rfmam2y_123456789 <= 0.5\ngini = 0.4507\nsamples = 2364\nvalue = [811, 1553]\nclass = not-tested", fillcolor="#399de57a"] ;
41 -> 45 ;
46 [label="gini = 0.4062\nsamples = 1309\nvalue = [371, 938]\nclass = not-tested", fillcolor="#399de59a"] ;
45 -> 46 ;
47 [label="gini = 0.4862\nsamples = 1055\nvalue = [440, 615]\nclass = not-tested", fillcolor="#399de549"] ;
45 -> 47 ;
48 [label="x.imprace_1 <= 0.5\ngini = 0.1584\nsamples = 64438\nvalue = [5588, 58850]\nclass = not-tested", fillcolor="#399de5e7"] ;
32 -> 48 ;
49 [label="htin4 <= 65.5\ngini = 0.2754\nsamples = 8435\nvalue = [1391, 7044]\nclass = not-tested", fillcolor="#399de5cd"] ;
48 -> 49 ;
50 [label="x.impmrtl_2 <= 0.5\ngini = 0.231\nsamples = 4848\nvalue = [646, 4202]\nclass = not-tested", fillcolor="#399de5d8"] ;
49 -> 50 ;
51 [label="gini = 0.2113\nsamples = 4114\nvalue = [494, 3620]\nclass = not-tested", fillcolor="#399de5dc"] ;
50 -> 51 ;
52 [label="gini = 0.3284\nsamples = 734\nvalue = [152, 582]\nclass = not-tested", fillcolor="#399de5bc"] ;
50 -> 52 ;
53 [label="x.age80 <= 77.0\ngini = 0.3291\nsamples = 3587\nvalue = [745, 2842]\nclass = not-tested", fillcolor="#399de5bc"] ;
49 -> 53 ;
54 [label="gini = 0.3682\nsamples = 2063\nvalue = [502, 1561]\nclass = not-tested", fillcolor="#399de5ad"] ;
53 -> 54 ;
55 [label="gini = 0.268\nsamples = 1524\nvalue = [243, 1281]\nclass = not-tested", fillcolor="#399de5cf"] ;
53 -> 55 ;
56 [label="x.age80 <= 75.5\ngini = 0.1387\nsamples = 56003\nvalue = [4197, 51806]\nclass = not-tested", fillcolor="#399de5ea"] ;
48 -> 56 ;
57 [label="x.impmrtl_2 <= 0.5\ngini = 0.1877\nsamples = 24007\nvalue = [2517, 21490]\nclass = not-tested", fillcolor="#399de5e1"] ;
56 -> 57 ;
58 [label="gini = 0.1692\nsamples = 20475\nvalue = [1910, 18565]\nclass = not-tested", fillcolor="#399de5e5"] ;
57 -> 58 ;
59 [label="gini = 0.2846\nsamples = 3532\nvalue = [607, 2925]\nclass = not-tested", fillcolor="#399de5ca"] ;
57 -> 59 ;
60 [label="x.impeduc_6 <= 0.5\ngini = 0.0995\nsamples = 31996\nvalue = [1680, 30316]\nclass = not-tested", fillcolor="#399de5f1"] ;
56 -> 60 ;
61 [label="gini = 0.0807\nsamples = 23035\nvalue = [970, 22065]\nclass = not-tested", fillcolor="#399de5f4"] ;
60 -> 61 ;
62 [label="gini = 0.1459\nsamples = 8961\nvalue = [710, 8251]\nclass = not-tested", fillcolor="#399de5e9"] ;
60 -> 62 ;
}